1.0,216,1,1,"[[ 0.80397296  0.25025678 -0.07063581 -0.01026256 -0.10708435 -0.00911448
   0.03765849  0.13019218 -0.63079554 -0.19674912  0.31221297]]",216,1
1.0,216,3,1,"[[ 0.5351949   0.15500763  0.1473276   0.00341857 -0.25725704 -0.04514641
   0.08173956  0.11814512 -1.83268     0.30866757 -0.14125851]]",216,8
1.0,216,6,1,"[[ 0.02891887  0.00616688  0.15814644 -0.00746646 -0.51019514 -0.09487811
   0.13665138  0.162685   -4.078457    0.3175789   0.08016153]]",216,15
1.0,216,12,1,"[[-0.28887248 -0.11109906 -0.18242347  0.12296012 -0.613384   -0.17192884
   0.07557672 -0.20665994 -5.2381253   0.09696779  0.03838132]]",216,22
1.0,216,24,1,"[[ 0.08161407  0.01870617  0.18405291  0.49818724 -0.12289707 -0.07420509
  -0.17503045  0.06686836 -2.1344519   0.11075208  0.08950723]]",216,29
1.0,432,1,1,"[[ 0.79656774 -0.05156197 -0.28135934 -0.01296301 -0.10976897 -0.01011884
   0.03870596  0.08775124 -0.83765274 -0.06807277  0.27151975]]",432,36
1.0,432,3,1,"[[ 0.5328397  -0.08740158 -0.06404017  0.00255153 -0.25819722 -0.04540441
   0.08202835  0.08424865 -1.7336675  -0.22120585  0.10181667]]",432,43
1.0,432,6,1,"[[ 0.06772843  0.29337072  0.12284565  0.01019919 -0.4971459  -0.08835633
   0.13359196 -0.28172505 -3.0531993   0.13249643  0.1280303 ]]",432,50
1.0,432,12,1,"[[-0.2816428   0.22279233 -0.07030053  0.12699161 -0.61104    -0.17076005
   0.07555555  0.07314076 -4.9821987  -0.08311015  0.24846745]]",432,57
1.0,432,24,1,"[[ 0.035099   -0.20031029  0.24942315  0.4669641  -0.14385535 -0.07455959
  -0.1757296   0.02175162 -3.3482885  -0.0352687   0.13220446]]",432,64
1.0,648,1,1,"[[ 0.794501   -0.20418355  0.24426466 -0.01379509 -0.11039858 -0.01050035
   0.03898618  0.12966633 -0.96300155  0.09644078 -0.02340145]]",648,71
1.0,648,3,1,"[[ 5.2315903e-01  2.8216463e-01 -2.0568180e-01 -1.3944753e-03
  -2.6158497e-01 -4.6877880e-02  8.3113581e-02  2.4016020e-01
  -1.9877323e+00 -7.3766768e-02  2.8070197e-01]]",648,78
1.0,648,6,1,"[[ 0.06154255 -0.02658078  0.05115461  0.00763917 -0.4995026  -0.08915205
   0.13416937 -0.13313168 -3.1637866   0.02163264  0.09971917]]",648,85
1.0,648,12,1,"[[-0.2883399  -0.10567106  0.19286874  0.12354653 -0.61344427 -0.17165242
   0.07571834 -0.16072896 -5.216829    0.18928349  0.11260857]]",648,92
1.0,648,24,1,"[[ 0.04920064 -0.2428692   0.22325021  0.4758318  -0.13731912 -0.07454311
  -0.17580622 -0.11176559 -3.070803    0.26030853  0.16714817]]",648,99
1.0,864,1,1,"[[ 0.7935796  -0.16700232 -0.27034283 -0.01408543 -0.11080284 -0.01056605
   0.0391232  -0.26593146 -0.90435195 -0.17798735  0.04072316]]",864,106
1.0,864,3,1,"[[ 0.54188824  0.10749391 -0.21916747  0.00606427 -0.25481182 -0.04421844
   0.08096719 -0.2684434  -1.5700676  -0.06320844  0.04670698]]",864,113
1.0,864,6,1,"[[ 4.8862215e-02 -1.5422244e-01 -2.8939730e-01  1.4933608e-03
  -5.0336260e-01 -9.1631919e-02  1.3504212e-01  5.2985009e-02
  -3.4482560e+00 -1.8082181e-01  3.3940637e-01]]",864,120
1.0,864,12,1,"[[-0.28899547 -0.06651984 -0.27113     0.12287334 -0.6134079  -0.17196356
   0.07556792 -0.08217729 -5.2409816   0.23008078  0.39567453]]",864,127
1.0,864,24,1,"[[ 0.03323189 -0.16215138  0.01024792  0.46563086 -0.144677   -0.07458545
  -0.17579322 -0.15237665 -3.4045591   0.02310964  0.2323374 ]]",864,134
0.98,694,1,1,"[[ 0.7981885  -0.06651483 -0.03371584 -0.04129849 -0.2648031   0.05109454
   0.11686531  1.1569916   1.3240801  -0.17953728  0.05769673]]",694,141
0.98,694,3,1,"[[ 0.6794293  -0.09861349 -0.06235516  0.04626836 -0.45969522 -0.00298019
   0.23843792  1.9797807   1.6781225  -0.7699512   0.40470567]]",694,148
0.98,694,6,1,"[[ 0.5056124  -0.31091812 -0.0959397   0.18453477 -0.7059968  -0.1215025
   0.36142182  2.5954084   1.9906546  -0.7513637   0.03730037]]",694,155
0.98,694,12,1,"[[ 0.30134565  0.15450117 -0.10282362  0.5530159  -0.89172673 -0.41029555
   0.31997702  2.6843724   2.28258    -1.2495394   0.23089631]]",694,162
0.98,694,24,1,"[[ 0.15664995 -0.12954074 -0.17322266  1.216978   -0.46025586 -0.4324564
  -0.35583374  2.4232144   2.0395656  -0.86776567  0.30009708]]",694,169
0.98,1388,1,1,"[[ 0.79206187  0.01827021 -0.02492746 -0.04958804 -0.26806197  0.04908013
   0.11851452  0.7109395   1.085393   -0.10227939  0.02000951]]",1388,176
0.98,1388,3,1,"[[ 0.6741641   0.30427703 -0.06896757  0.03991068 -0.46334296 -0.00353909
   0.23952521  1.6296992   1.6436063  -0.81080407  0.15413783]]",1388,183
0.98,1388,6,1,"[[ 0.50423783 -0.16224821 -0.18807076  0.1824354  -0.7067433  -0.12189838
   0.36151066  2.2794728   2.116264   -0.48668587  0.64142555]]",1388,190
0.98,1388,12,1,"[[ 0.30494052 -0.18923926 -0.01460414  0.55702925 -0.8886567  -0.41089645
   0.31961673  2.80909     2.3642182  -0.8621209   0.6061504 ]]",1388,197
0.98,1388,24,1,"[[ 0.15251598 -0.12729165  0.03000208  1.2120147  -0.46445653 -0.43095714
  -0.35529605  2.0368962   2.2088199  -0.87359715  0.576166  ]]",1388,204
0.98,2082,1,1,"[[ 0.7915777   0.12410773  0.04653648 -0.05008476 -0.26841417  0.04906247
   0.11864821  0.74238056  1.0120178  -0.07162452  0.11127133]]",2082,211
0.98,2082,3,1,"[[ 0.6816976   0.13486311 -0.07876346  0.04832944 -0.45771778 -0.00330308
   0.23785955  1.856885    1.8401998  -0.92127603  0.4448197 ]]",2082,218
0.98,2082,6,1,"[[ 0.5088616  -0.21133316 -0.05529726  0.18814452 -0.70349014 -0.12157066
   0.3608695   2.6712449   2.06981    -0.74324024  0.2454769 ]]",2082,225
0.98,2082,12,1,"[[ 0.30529347  0.04018971 -0.17862837  0.5580157  -0.88868964 -0.41062889
   0.31983817  2.9750917   2.3550653  -0.88970417  0.16255048]]",2082,232
0.98,2082,24,1,"[[ 0.154908    0.12343519 -0.05419518  1.2145218  -0.46196023 -0.43187118
  -0.35572228  2.184941    2.1743898  -0.88317245  0.31950033]]",2082,239
0.98,2776,1,1,"[[ 0.7954954  -0.05361099 -0.12154076 -0.04450904 -0.26648614  0.05058841
   0.11761069  1.098548    0.97618103 -0.58335084  0.23475474]]",2776,246
0.98,2776,3,1,"[[ 0.67357355  0.2357346   0.12550606  0.03952388 -0.4639536  -0.00332658
   0.23970167  1.7491286   1.603932   -0.60211855  0.0443273 ]]",2776,253
0.98,2776,6,1,"[[ 0.49699712 -0.01668681 -0.2102939   0.17434713 -0.7122163  -0.12182181
   0.36268884  2.1552193   1.8334873  -0.54926383  0.36474097]]",2776,260
0.98,2776,12,1,"[[ 0.30476925  0.00384148 -0.06110866  0.5569608  -0.8889859  -0.41075468
   0.3197396   2.7128224   2.5241003  -0.8920674   0.30496082]]",2776,267
0.98,2776,24,1,"[[ 0.15389647 -0.10491639  0.2976898   1.2135564  -0.46297485 -0.43148485
  -0.35553667  2.291282    2.0996416  -0.8058998   0.14660469]]",2776,274
0.98,3470,1,1,"[[ 0.7933035  -0.28399086  0.14920816 -0.04713377 -0.2678436   0.05016029
   0.11820829  1.1399657   0.775796   -0.4253049   0.22708464]]",3470,281
0.98,3470,3,1,"[[ 0.6822267   0.19017075 -0.28282163  0.04958313 -0.4576534  -0.00277404
   0.23782998  2.2655587   1.6424176  -0.8330806   0.10872689]]",3470,288
0.98,3470,6,1,"[[ 0.49509835  0.07890174 -0.1461084   0.17171495 -0.7133165  -0.12220688
   0.3628454   1.9439538   1.7713829  -0.92403847  0.27570254]]",3470,295
0.98,3470,12,1,"[[ 0.304006   -0.05555743  0.2097721   0.55564404 -0.88937676 -0.4108837
   0.31961748  2.5931787   2.5260801  -1.144271    0.10194302]]",3470,302
0.98,3470,24,1,"[[ 0.14481066 -0.08430944  0.1836294   1.2028996  -0.47191662 -0.4282424
  -0.35443312  2.1249325   1.863424   -0.8580603   0.26280996]]",3470,309
0.96,1288,1,1,"[[ 0.8939352   0.08521737  0.00509817 -0.00223713 -0.09542928  0.00220238
   0.03821984 -0.2926515  -0.09347255 -0.27174422 -0.15341735]]",1288,316
0.96,1288,3,1,"[[ 0.68122894 -0.00375185  0.10191176  0.00197168 -0.28007367 -0.00960271
   0.10906376 -0.0828583  -0.09110184 -0.90399605  0.17829888]]",1288,323
0.96,1288,6,1,"[[ 0.41081294 -0.05168733  0.33227435  0.03749026 -0.5017457  -0.04236121
   0.17796244 -0.22037368  0.33648178 -1.1660167   0.09083988]]",1288,330
0.96,1288,12,1,"[[ 0.1286175   0.42346588 -0.05111902  0.22915311 -0.6795801  -0.16216856
   0.17422059 -0.35329494  0.6248393  -0.98357934 -0.12901385]]",1288,337
0.96,1288,24,1,"[[-0.04555064  0.25315586 -0.00137914  0.6480428  -0.4466889  -0.17053354
  -0.1337031   0.24707645  0.96734613 -0.8887152  -0.7112907 ]]",1288,344
0.96,2576,1,1,"[[ 0.891537   -0.05363181  0.14187174 -0.00243    -0.09749988  0.00330083
   0.03857957  0.04806536  0.31289387 -0.23644248 -0.29740235]]",2576,351
0.96,2576,3,1,"[[ 6.7033064e-01  2.9191568e-01 -4.9670022e-03  9.9836779e-04
  -2.8893784e-01 -4.9515562e-03  1.1069086e-01 -3.5718244e-01
   2.7105922e-01 -1.0006284e+00 -4.2897470e-02]]",2576,358
0.96,2576,6,1,"[[ 0.41568345  0.05688232  0.17528982  0.03761864 -0.49774793 -0.04447328
   0.17692511 -0.5135093   0.00640114 -0.65738946  0.14641942]]",2576,365
0.96,2576,12,1,"[[ 0.12591672  0.24773517  0.1511575   0.22931916 -0.6817291  -0.16119781
   0.17506117 -0.1751494   0.80753875 -1.3423593  -0.32458767]]",2576,372
0.96,2576,24,1,"[[-0.03994928  0.08807283  0.08271744  0.64674425 -0.44266775 -0.17177407
  -0.13539346  0.19361779  0.6294416  -0.77204424 -0.58106774]]",2576,379
0.96,3864,1,1,"[[ 0.8919796  -0.02436944  0.14367522 -0.002405   -0.09705906  0.00305517
   0.03849392 -0.27591112 -0.00469829 -0.3545285  -0.068281  ]]",3864,386
0.96,3864,3,1,"[[ 0.67906815  0.01667085  0.14333163  0.00179768 -0.28178176 -0.00871335
   0.10936442 -0.36753157 -0.1938872  -0.8923117   0.31757635]]",3864,393
0.96,3864,6,1,"[[ 0.41610077  0.01718917  0.2057287   0.03762779 -0.49741262 -0.04464966
   0.17684217 -0.50901425  0.02771123 -0.52694076  0.1284814 ]]",3864,400
0.96,3864,12,1,"[[ 0.12417991  0.43334708  0.02754987  0.22936602 -0.6830218  -0.16068113
   0.17552547 -0.5240406   0.6445207  -1.3293585  -0.36455306]]",3864,407
0.96,3864,24,1,"[[-0.04096142 -0.08323729  0.2913977   0.6469254  -0.44335678 -0.17155889
  -0.13515808 -0.08148915  0.5575268  -0.4701898  -0.42499104]]",3864,414
0.96,5152,1,1,"[[ 0.8873995   0.05631823  0.09779304 -0.00283987 -0.10091385  0.00505793
   0.03915536  0.04119529  0.45750144 -0.44612122 -0.16822408]]",5152,421
0.96,5152,3,1,"[[ 0.67664176 -0.08119673  0.22498922  0.00165556 -0.28389508 -0.0075638
   0.10977901  0.05401818  0.39677432 -0.55652094 -0.23917872]]",5152,428
0.96,5152,6,1,"[[ 0.41191885  0.26137063  0.03675452  0.03751209 -0.5007848  -0.0428704
   0.17769507 -0.5498035   0.07887587 -1.0048364   0.15507288]]",5152,435
0.96,5152,12,1,"[[ 0.12595992  0.01235311  0.39618868  0.22931118 -0.6816781  -0.1612349
   0.17503299 -0.31638008  0.7588106  -1.0953388  -0.09571388]]",5152,442
0.96,5152,24,1,"[[-0.03956863  0.3457758  -0.16354491  0.6466121  -0.44236147 -0.17186746
  -0.13556434 -0.04677758  0.5380616  -0.381193   -0.5103812 ]]",5152,449
0.96,6440,1,1,"[[ 0.8901963   0.22015826 -0.107068   -0.00255321 -0.0986037   0.00387124
   0.03876433  0.01170371  0.35186154 -0.27852944 -0.37560195]]",6440,456
0.96,6440,3,1,"[[ 6.65307462e-01  1.09312676e-01  2.20522240e-01  4.76836547e-04
  -2.93086112e-01 -2.81299837e-03  1.11478895e-01 -1.75837591e-01
   8.15314651e-01 -5.73833108e-01 -3.06353033e-01]]",6440,463
0.96,6440,6,1,"[[ 0.41516757 -0.01969251  0.24548392  0.0375999  -0.49819022 -0.04423553
   0.17704783 -0.3074505   0.04807387 -1.1142633   0.12498565]]",6440,470
0.96,6440,12,1,"[[ 0.12399217  0.28498653  0.14232767  0.22941919 -0.6832459  -0.16053501
   0.17564154 -0.21454298  0.926078   -1.1818255  -0.27203175]]",6440,477
0.96,6440,24,1,"[[-0.03981667  0.29859674 -0.11648439  0.64668316 -0.4425446  -0.17181057
  -0.1354766   0.00373007  0.5411179  -0.46857718 -0.19092064]]",6440,484
0.94,1810,1,1,"[[ 0.92072845 -0.00425218 -0.00435614  0.01028447 -0.08661946 -0.00575674
   0.04504333 -0.4300896  -0.45771843  0.53827596  0.12996243]]",1810,491
0.94,1810,3,1,"[[ 0.73078376  0.1573138  -0.10203558  0.03216137 -0.27160653 -0.024732
   0.13458233 -0.11578922 -0.10799962 -0.30817112 -0.20428562]]",1810,498
0.94,1810,6,1,"[[ 0.48212114  0.00090096  0.11179636  0.08541807 -0.49770766 -0.07643587
   0.22279198 -0.24998674  0.00539723 -0.03805359 -0.06471824]]",1810,505
0.94,1810,12,1,"[[ 0.23149288  0.13274084 -0.00921584  0.31534147 -0.66412467 -0.24808781
   0.20832306 -0.27529705 -0.07937811 -0.20908214 -0.0652695 ]]",1810,512
0.94,1810,24,1,"[[ 0.0264658  -0.06560837  0.11366004  0.75664926 -0.4129542  -0.24832666
  -0.19564548 -0.50419915 -0.62850535 -0.03094207  0.05567847]]",1810,519
0.94,3620,1,1,"[[ 0.9201201   0.00097068 -0.00441868  0.01020147 -0.08678572 -0.00539849
   0.04528732 -0.23895074 -0.4658629  -0.14591856  0.19630553]]",3620,526
0.94,3620,3,1,"[[ 0.730268   -0.02128966  0.07895169  0.0319952  -0.27188885 -0.02451788
   0.13474853 -0.14119288 -0.04540318 -0.08023394 -0.00572574]]",3620,533
0.94,3620,6,1,"[[ 0.48025012  0.19499575 -0.07799812  0.08478609 -0.49877587 -0.07568831
   0.2234494  -0.17028473  0.1961145   0.05793338 -0.13413079]]",3620,540
0.94,3620,12,1,"[[ 0.22803651  0.08522561  0.05903985  0.31425187 -0.6659955  -0.24686772
   0.20973818 -0.05903518  0.40046465 -0.12381855 -0.41967535]]",3620,547
0.94,3620,24,1,"[[ 0.02089865  0.13437651 -0.04625029  0.7545951  -0.41720158 -0.24703343
  -0.19472104 -0.11087535  0.07353343 -0.19483459 -0.08059523]]",3620,554
0.94,5430,1,1,"[[ 0.917891    0.10540672 -0.10466318  0.00947969 -0.08806304 -0.00447773
   0.04593806 -0.163425   -0.26542726 -0.0069369   0.17607448]]",5430,561
0.94,5430,3,1,"[[ 0.7377741  -0.00279022  0.03076689  0.03423483 -0.26801747 -0.02783308
   0.13212855 -0.5686158  -0.82056075 -0.03403653  0.2907198 ]]",5430,568
0.94,5430,6,1,"[[ 0.4787089   0.27013868 -0.14665808  0.0843048  -0.4995542  -0.07502441
   0.22403455 -0.02627797  0.3382205  -0.18732475 -0.25400728]]",5430,575
0.94,5430,12,1,"[[ 0.2314019   0.1705805  -0.04724864  0.3153187  -0.66416305 -0.24804997
   0.20837401 -0.21721911 -0.11264638 -0.43123913  0.22149718]]",5430,582
0.94,5430,24,1,"[[ 0.00393219  0.32433432 -0.09244332  0.7483085  -0.43025526 -0.2430185
  -0.19172889  1.2366031   2.2461646  -1.3541403  -1.0147251 ]]",5430,589
0.94,7240,1,1,"[[ 0.92391557 -0.22919603  0.21130945  0.01124608 -0.08488321 -0.00712457
   0.04407028 -0.5904665  -0.7679534   0.54531527  0.5631274 ]]",7240,596
0.94,7240,3,1,"[[ 0.72877395  0.10335866 -0.03650663  0.03154431 -0.27264437 -0.02386186
   0.13525404 -0.15790686  0.18244696  0.35102504 -0.2777898 ]]",7240,603
0.94,7240,6,1,"[[ 0.47871178  0.16010736 -0.03507382  0.08429701 -0.49957052 -0.07504222
   0.22401299 -0.13444053  0.39316124  0.27878955 -0.25114375]]",7240,610
0.94,7240,12,1,"[[ 0.22738247  0.02316339  0.12490995  0.3140407  -0.66633826 -0.24663384
   0.21000588 -0.01331922  0.47373983 -0.13067313 -0.2813572 ]]",7240,617
0.94,7240,24,1,"[[ 0.01528911 -0.0222503   0.14989139  0.7525099  -0.42150816 -0.24571702
  -0.19375698  0.25524628  0.7949993  -0.23987977 -0.3393334 ]]",7240,624
0.94,9050,1,1,"[[ 0.91545683  0.14574453 -0.13639116  0.00876565 -0.08932476 -0.00340578
   0.04668051 -0.00897956 -0.05528817 -0.15804146  0.05972122]]",9050,631
0.94,9050,3,1,"[[ 0.7326101   0.02074099  0.02889248  0.03272902 -0.27063656 -0.02552616
   0.13396204 -0.2520674  -0.30424222 -0.15195362  0.32555783]]",9050,638
0.94,9050,6,1,"[[ 0.4819031   0.20813541 -0.09424106  0.08535542 -0.4978066  -0.07633639
   0.22288024 -0.22598794  0.01663025 -0.08661103  0.05293666]]",9050,645
0.94,9050,12,1,"[[ 0.22754203 -0.04761891  0.19519825  0.31409258 -0.6662428  -0.24668793
   0.20994379 -0.02302465  0.45238054 -0.13408738 -0.24169905]]",9050,652
0.94,9050,24,1,"[[ 0.02803345  0.13462476 -0.09965534  0.75721693 -0.4117717  -0.24868806
  -0.19589911 -0.5500158  -0.86061794 -0.26317918  0.07923956]]",9050,659
